Language model created by QuickLM on Thu Mar  8 12:54:52 EST 2018
Copyright (c) 1996-2010 Carnegie Mellon University and Alexander I. Rudnicky

The model is in standard ARPA format, designed by Doug Paul while he was at MITRE.

The code that was used to produce this language model is available in Open Source.
Please visit http://www.speech.cs.cmu.edu/tools/ for more information

The (fixed) discount mass is 0.5. The backoffs are computed using the ratio method.
This model based on a corpus of 14 sentences and 16 words

\data\
ngram 1=16
ngram 2=28
ngram 3=14

\1-grams:
-0.7782 </s> -0.3010
-0.7782 <s> -0.2218
-1.9243 HELLO -0.2218
-1.9243 IS -0.2218
-1.9243 IT -0.2218
-1.9243 NO -0.2218
-1.9243 ONE -0.2218
-1.9243 QUIT -0.2218
-1.9243 START -0.2218
-1.9243 STOP -0.2218
-1.9243 TEST -0.2218
-1.9243 THREE -0.2218
-1.9243 TIME -0.2218
-1.9243 TWO -0.2218
-1.9243 WHAT -0.2218
-1.9243 YES -0.2218

\2-grams:
-1.4472 <s> HELLO 0.0000
-1.4472 <s> IS 0.0000
-1.4472 <s> IT 0.0000
-1.4472 <s> NO 0.0000
-1.4472 <s> ONE 0.0000
-1.4472 <s> QUIT 0.0000
-1.4472 <s> START 0.0000
-1.4472 <s> STOP 0.0000
-1.4472 <s> TEST 0.0000
-1.4472 <s> THREE 0.0000
-1.4472 <s> TIME 0.0000
-1.4472 <s> TWO 0.0000
-1.4472 <s> WHAT 0.0000
-1.4472 <s> YES 0.0000
-0.3010 HELLO </s> -0.3010
-0.3010 IS </s> -0.3010
-0.3010 IT </s> -0.3010
-0.3010 NO </s> -0.3010
-0.3010 ONE </s> -0.3010
-0.3010 QUIT </s> -0.3010
-0.3010 START </s> -0.3010
-0.3010 STOP </s> -0.3010
-0.3010 TEST </s> -0.3010
-0.3010 THREE </s> -0.3010
-0.3010 TIME </s> -0.3010
-0.3010 TWO </s> -0.3010
-0.3010 WHAT </s> -0.3010
-0.3010 YES </s> -0.3010

\3-grams:
-0.3010 <s> HELLO </s>
-0.3010 <s> IS </s>
-0.3010 <s> IT </s>
-0.3010 <s> NO </s>
-0.3010 <s> ONE </s>
-0.3010 <s> QUIT </s>
-0.3010 <s> START </s>
-0.3010 <s> STOP </s>
-0.3010 <s> TEST </s>
-0.3010 <s> THREE </s>
-0.3010 <s> TIME </s>
-0.3010 <s> TWO </s>
-0.3010 <s> WHAT </s>
-0.3010 <s> YES </s>

\end\
