Language model created by QuickLM on Thu Mar  8 12:54:52 EST 2018
Copyright (c) 1996-2010 Carnegie Mellon University and Alexander I. Rudnicky

The model is in standard ARPA format, designed by Doug Paul while he was at MITRE.

The code that was used to produce this language model is available in Open Source.
Please visit http://www.speech.cs.cmu.edu/tools/ for more information

The (fixed) discount mass is 0.5. The backoffs are computed using the ratio method.
This model based on a corpus of 14 sentences and 16 words

\data\
ngram 1=11
ngram 2=18
ngram 3=9

\1-grams:
-0.7782 </s> -0.3010
-0.7782 <s> -0.2218
-4.395735	intervention	-0.09852938
-4.786062	incident	-0.09652193
-4.132555	problème	-0.1323393
-4.500073	alerte	-0.09872148
-4.474391	vente	-0.09977128
-4.734815	achat	-0.08303496
-4.353931	enregistre	-0.330896
-3.471461	oui	-0.3418881
-2.999916	non	-0.21492

\2-grams:
-1.4472 <s> intervention 0.0000
-1.4472 <s> incident 0.0000
-1.4472 <s> problème 0.0000
-1.4472 <s> alerte 0.0000
-1.4472 <s> vente 0.0000
-1.4472 <s> achat 0.0000
-1.4472 <s> enregistre 0.0000
-1.4472 <s> oui 0.0000
-1.4472 <s> non 0.0000
-0.3010 intervention </s> -0.3010
-0.3010 incident </s> -0.3010
-0.3010 problème </s> -0.3010
-0.3010 alerte </s> -0.3010
-0.3010 vente </s> -0.3010
-0.3010 achat </s> -0.3010
-0.3010 enregistre </s> -0.3010
-0.3010 oui </s> -0.3010
-0.3010 non </s> -0.3010

\3-grams:
-0.3010 <s> intervention </s>
-0.3010 <s> incident </s>
-0.3010 <s> problème </s>
-0.3010 <s> alerte </s>
-0.3010 <s> vente </s>
-0.3010 <s> achat </s>
-0.3010 <s> enregistre </s>
-0.3010 <s> oui </s>
-0.3010 <s> non </s>


\end\
